digraph Tree {
node [shape=box] ;
0 [label="X[36] <= 0.5\ngini = 0.9\nsamples = 1257\nvalue = [123, 135, 123, 126, 124, 123, 132, 117, 124, 130]"] ;
1 [label="X[28] <= 4.5\ngini = 0.545\nsamples = 192\nvalue = [121, 0, 3, 1, 4, 13, 3, 0, 3, 44]"] ;
0 -> 1 [labeldistance=2.5, labelangle=45, headlabel="True"] ;
2 [label="X[21] <= 1.0\ngini = 0.182\nsamples = 134\nvalue = [121, 0, 3, 0, 4, 3, 2, 0, 0, 1]"] ;
1 -> 2 ;
3 [label="X[37] <= 5.5\ngini = 0.764\nsamples = 12\nvalue = [1, 0, 2, 0, 4, 3, 2, 0, 0, 0]"] ;
2 -> 3 ;
4 [label="X[53] <= 5.0\ngini = 0.719\nsamples = 8\nvalue = [1, 0, 2, 0, 0, 3, 2, 0, 0, 0]"] ;
3 -> 4 ;
5 [label="gini = 0.0\nsamples = 3\nvalue = [0, 0, 0, 0, 0, 3, 0, 0, 0, 0]"] ;
4 -> 5 ;
6 [label="X[10] <= 8.5\ngini = 0.64\nsamples = 5\nvalue = [1, 0, 2, 0, 0, 0, 2, 0, 0, 0]"] ;
4 -> 6 ;
7 [label="gini = 0.0\nsamples = 2\nvalue = [0, 0, 0, 0, 0, 0, 2, 0, 0, 0]"] ;
6 -> 7 ;
8 [label="X[10] <= 13.0\ngini = 0.444\nsamples = 3\nvalue = [1, 0, 2, 0, 0, 0, 0, 0, 0, 0]"] ;
6 -> 8 ;
9 [label="gini = 0.0\nsamples = 1\nvalue = [1, 0, 0, 0, 0, 0, 0, 0, 0, 0]"] ;
8 -> 9 ;
10 [label="gini = 0.0\nsamples = 2\nvalue = [0, 0, 2, 0, 0, 0, 0, 0, 0, 0]"] ;
8 -> 10 ;
11 [label="gini = 0.0\nsamples = 4\nvalue = [0, 0, 0, 0, 4, 0, 0, 0, 0, 0]"] ;
3 -> 11 ;
12 [label="X[26] <= 2.5\ngini = 0.032\nsamples = 122\nvalue = [120, 0, 1, 0, 0, 0, 0, 0, 0, 1]"] ;
2 -> 12 ;
13 [label="X[30] <= 7.0\ngini = 0.5\nsamples = 2\nvalue = [0, 0, 1, 0, 0, 0, 0, 0, 0, 1]"] ;
12 -> 13 ;
14 [label="gini = 0.0\nsamples = 1\nvalue = [0, 0, 1, 0, 0, 0, 0, 0, 0, 0]"] ;
13 -> 14 ;
15 [label="gini = 0.0\nsamples = 1\nvalue = [0, 0, 0, 0, 0, 0, 0, 0, 0, 1]"] ;
13 -> 15 ;
16 [label="gini = 0.0\nsamples = 120\nvalue = [120, 0, 0, 0, 0, 0, 0, 0, 0, 0]"] ;
12 -> 16 ;
17 [label="X[21] <= 9.0\ngini = 0.417\nsamples = 58\nvalue = [0, 0, 0, 1, 0, 10, 1, 0, 3, 43]"] ;
1 -> 17 ;
18 [label="X[42] <= 7.5\ngini = 0.391\nsamples = 13\nvalue = [0, 0, 0, 0, 0, 10, 1, 0, 1, 1]"] ;
17 -> 18 ;
19 [label="X[20] <= 10.5\ngini = 0.165\nsamples = 11\nvalue = [0, 0, 0, 0, 0, 10, 0, 0, 0, 1]"] ;
18 -> 19 ;
20 [label="gini = 0.0\nsamples = 10\nvalue = [0, 0, 0, 0, 0, 10, 0, 0, 0, 0]"] ;
19 -> 20 ;
21 [label="gini = 0.0\nsamples = 1\nvalue = [0, 0, 0, 0, 0, 0, 0, 0, 0, 1]"] ;
19 -> 21 ;
22 [label="X[3] <= 12.5\ngini = 0.5\nsamples = 2\nvalue = [0, 0, 0, 0, 0, 0, 1, 0, 1, 0]"] ;
18 -> 22 ;
23 [label="gini = 0.0\nsamples = 1\nvalue = [0, 0, 0, 0, 0, 0, 0, 0, 1, 0]"] ;
22 -> 23 ;
24 [label="gini = 0.0\nsamples = 1\nvalue = [0, 0, 0, 0, 0, 0, 1, 0, 0, 0]"] ;
22 -> 24 ;
25 [label="X[29] <= 4.5\ngini = 0.126\nsamples = 45\nvalue = [0, 0, 0, 1, 0, 0, 0, 0, 2, 42]"] ;
17 -> 25 ;
26 [label="gini = 0.0\nsamples = 2\nvalue = [0, 0, 0, 0, 0, 0, 0, 0, 2, 0]"] ;
25 -> 26 ;
27 [label="X[9] <= 10.5\ngini = 0.045\nsamples = 43\nvalue = [0, 0, 0, 1, 0, 0, 0, 0, 0, 42]"] ;
25 -> 27 ;
28 [label="gini = 0.0\nsamples = 42\nvalue = [0, 0, 0, 0, 0, 0, 0, 0, 0, 42]"] ;
27 -> 28 ;
29 [label="gini = 0.0\nsamples = 1\nvalue = [0, 0, 0, 1, 0, 0, 0, 0, 0, 0]"] ;
27 -> 29 ;
30 [label="X[21] <= 0.5\ngini = 0.888\nsamples = 1065\nvalue = [2, 135, 120, 125, 120, 110, 129, 117, 121, 86]"] ;
0 -> 30 [labeldistance=2.5, labelangle=-45, headlabel="False"] ;
31 [label="X[42] <= 9.5\ngini = 0.742\nsamples = 336\nvalue = [0, 35, 34, 9, 25, 102, 125, 4, 1, 1]"] ;
30 -> 31 ;
32 [label="X[5] <= 2.5\ngini = 0.642\nsamples = 181\nvalue = [0, 30, 26, 9, 6, 100, 4, 4, 1, 1]"] ;
31 -> 32 ;
33 [label="X[9] <= 0.5\ngini = 0.729\nsamples = 79\nvalue = [0, 30, 26, 8, 4, 1, 4, 4, 1, 1]"] ;
32 -> 33 ;
34 [label="X[37] <= 8.0\ngini = 0.462\nsamples = 39\nvalue = [0, 28, 1, 1, 4, 0, 4, 1, 0, 0]"] ;
33 -> 34 ;
35 [label="X[3] <= 3.5\ngini = 0.127\nsamples = 30\nvalue = [0, 28, 1, 0, 0, 0, 1, 0, 0, 0]"] ;
34 -> 35 ;
36 [label="gini = 0.0\nsamples = 1\nvalue = [0, 0, 0, 0, 0, 0, 1, 0, 0, 0]"] ;
35 -> 36 ;
37 [label="X[35] <= 1.5\ngini = 0.067\nsamples = 29\nvalue = [0, 28, 1, 0, 0, 0, 0, 0, 0, 0]"] ;
35 -> 37 ;
38 [label="gini = 0.0\nsamples = 1\nvalue = [0, 0, 1, 0, 0, 0, 0, 0, 0, 0]"] ;
37 -> 38 ;
39 [label="gini = 0.0\nsamples = 28\nvalue = [0, 28, 0, 0, 0, 0, 0, 0, 0, 0]"] ;
37 -> 39 ;
40 [label="X[61] <= 10.0\ngini = 0.667\nsamples = 9\nvalue = [0, 0, 0, 1, 4, 0, 3, 1, 0, 0]"] ;
34 -> 40 ;
41 [label="X[3] <= 11.0\ngini = 0.5\nsamples = 6\nvalue = [0, 0, 0, 1, 4, 0, 0, 1, 0, 0]"] ;
40 -> 41 ;
42 [label="gini = 0.0\nsamples = 4\nvalue = [0, 0, 0, 0, 4, 0, 0, 0, 0, 0]"] ;
41 -> 42 ;
43 [label="X[50] <= 4.5\ngini = 0.5\nsamples = 2\nvalue = [0, 0, 0, 1, 0, 0, 0, 1, 0, 0]"] ;
41 -> 43 ;
44 [label="gini = 0.0\nsamples = 1\nvalue = [0, 0, 0, 1, 0, 0, 0, 0, 0, 0]"] ;
43 -> 44 ;
45 [label="gini = 0.0\nsamples = 1\nvalue = [0, 0, 0, 0, 0, 0, 0, 1, 0, 0]"] ;
43 -> 45 ;
46 [label="gini = 0.0\nsamples = 3\nvalue = [0, 0, 0, 0, 0, 0, 3, 0, 0, 0]"] ;
40 -> 46 ;
47 [label="X[37] <= 5.0\ngini = 0.569\nsamples = 40\nvalue = [0, 2, 25, 7, 0, 1, 0, 3, 1, 1]"] ;
33 -> 47 ;
48 [label="X[18] <= 15.0\ngini = 0.196\nsamples = 28\nvalue = [0, 2, 25, 0, 0, 0, 0, 0, 1, 0]"] ;
47 -> 48 ;
49 [label="X[5] <= 0.5\ngini = 0.074\nsamples = 26\nvalue = [0, 0, 25, 0, 0, 0, 0, 0, 1, 0]"] ;
48 -> 49 ;
50 [label="gini = 0.0\nsamples = 25\nvalue = [0, 0, 25, 0, 0, 0, 0, 0, 0, 0]"] ;
49 -> 50 ;
51 [label="gini = 0.0\nsamples = 1\nvalue = [0, 0, 0, 0, 0, 0, 0, 0, 1, 0]"] ;
49 -> 51 ;
52 [label="gini = 0.0\nsamples = 2\nvalue = [0, 2, 0, 0, 0, 0, 0, 0, 0, 0]"] ;
48 -> 52 ;
53 [label="X[53] <= 11.5\ngini = 0.583\nsamples = 12\nvalue = [0, 0, 0, 7, 0, 1, 0, 3, 0, 1]"] ;
47 -> 53 ;
54 [label="X[34] <= 9.5\ngini = 0.56\nsamples = 5\nvalue = [0, 0, 0, 0, 0, 1, 0, 3, 0, 1]"] ;
53 -> 54 ;
55 [label="X[20] <= 7.0\ngini = 0.5\nsamples = 2\nvalue = [0, 0, 0, 0, 0, 1, 0, 0, 0, 1]"] ;
54 -> 55 ;
56 [label="gini = 0.0\nsamples = 1\nvalue = [0, 0, 0, 0, 0, 1, 0, 0, 0, 0]"] ;
55 -> 56 ;
57 [label="gini = 0.0\nsamples = 1\nvalue = [0, 0, 0, 0, 0, 0, 0, 0, 0, 1]"] ;
55 -> 57 ;
58 [label="gini = 0.0\nsamples = 3\nvalue = [0, 0, 0, 0, 0, 0, 0, 3, 0, 0]"] ;
54 -> 58 ;
59 [label="gini = 0.0\nsamples = 7\nvalue = [0, 0, 0, 7, 0, 0, 0, 0, 0, 0]"] ;
53 -> 59 ;
60 [label="X[18] <= 4.5\ngini = 0.057\nsamples = 102\nvalue = [0, 0, 0, 1, 2, 99, 0, 0, 0, 0]"] ;
32 -> 60 ;
61 [label="X[15] <= 3.5\ngini = 0.5\nsamples = 2\nvalue = [0, 0, 0, 1, 1, 0, 0, 0, 0, 0]"] ;
60 -> 61 ;
62 [label="gini = 0.0\nsamples = 1\nvalue = [0, 0, 0, 1, 0, 0, 0, 0, 0, 0]"] ;
61 -> 62 ;
63 [label="gini = 0.0\nsamples = 1\nvalue = [0, 0, 0, 0, 1, 0, 0, 0, 0, 0]"] ;
61 -> 63 ;
64 [label="X[24] <= 0.5\ngini = 0.02\nsamples = 100\nvalue = [0, 0, 0, 0, 1, 99, 0, 0, 0, 0]"] ;
60 -> 64 ;
65 [label="gini = 0.0\nsamples = 99\nvalue = [0, 0, 0, 0, 0, 99, 0, 0, 0, 0]"] ;
64 -> 65 ;
66 [label="gini = 0.0\nsamples = 1\nvalue = [0, 0, 0, 0, 1, 0, 0, 0, 0, 0]"] ;
64 -> 66 ;
67 [label="X[54] <= 3.5\ngini = 0.372\nsamples = 155\nvalue = [0, 5, 8, 0, 19, 2, 121, 0, 0, 0]"] ;
31 -> 67 ;
68 [label="X[37] <= 5.5\ngini = 0.645\nsamples = 35\nvalue = [0, 5, 3, 0, 19, 2, 6, 0, 0, 0]"] ;
67 -> 68 ;
69 [label="X[53] <= 5.5\ngini = 0.651\nsamples = 13\nvalue = [0, 5, 3, 0, 0, 0, 5, 0, 0, 0]"] ;
68 -> 69 ;
70 [label="gini = 0.0\nsamples = 5\nvalue = [0, 5, 0, 0, 0, 0, 0, 0, 0, 0]"] ;
69 -> 70 ;
71 [label="X[4] <= 10.0\ngini = 0.469\nsamples = 8\nvalue = [0, 0, 3, 0, 0, 0, 5, 0, 0, 0]"] ;
69 -> 71 ;
72 [label="gini = 0.0\nsamples = 3\nvalue = [0, 0, 3, 0, 0, 0, 0, 0, 0, 0]"] ;
71 -> 72 ;
73 [label="gini = 0.0\nsamples = 5\nvalue = [0, 0, 0, 0, 0, 0, 5, 0, 0, 0]"] ;
71 -> 73 ;
74 [label="X[44] <= 7.5\ngini = 0.244\nsamples = 22\nvalue = [0, 0, 0, 0, 19, 2, 1, 0, 0, 0]"] ;
68 -> 74 ;
75 [label="X[29] <= 5.5\ngini = 0.444\nsamples = 3\nvalue = [0, 0, 0, 0, 0, 2, 1, 0, 0, 0]"] ;
74 -> 75 ;
76 [label="gini = 0.0\nsamples = 1\nvalue = [0, 0, 0, 0, 0, 0, 1, 0, 0, 0]"] ;
75 -> 76 ;
77 [label="gini = 0.0\nsamples = 2\nvalue = [0, 0, 0, 0, 0, 2, 0, 0, 0, 0]"] ;
75 -> 77 ;
78 [label="gini = 0.0\nsamples = 19\nvalue = [0, 0, 0, 0, 19, 0, 0, 0, 0, 0]"] ;
74 -> 78 ;
79 [label="X[9] <= 3.0\ngini = 0.08\nsamples = 120\nvalue = [0, 0, 5, 0, 0, 0, 115, 0, 0, 0]"] ;
67 -> 79 ;
80 [label="gini = 0.0\nsamples = 115\nvalue = [0, 0, 0, 0, 0, 0, 115, 0, 0, 0]"] ;
79 -> 80 ;
81 [label="gini = 0.0\nsamples = 5\nvalue = [0, 0, 5, 0, 0, 0, 0, 0, 0, 0]"] ;
79 -> 81 ;
82 [label="X[60] <= 2.5\ngini = 0.86\nsamples = 729\nvalue = [2, 100, 86, 116, 95, 8, 4, 113, 120, 85]"] ;
30 -> 82 ;
83 [label="X[26] <= 12.5\ngini = 0.232\nsamples = 95\nvalue = [0, 0, 1, 2, 4, 0, 0, 83, 0, 5]"] ;
82 -> 83 ;
84 [label="X[37] <= 0.5\ngini = 0.072\nsamples = 81\nvalue = [0, 0, 1, 2, 0, 0, 0, 78, 0, 0]"] ;
83 -> 84 ;
85 [label="X[35] <= 15.5\ngini = 0.444\nsamples = 3\nvalue = [0, 0, 0, 2, 0, 0, 0, 1, 0, 0]"] ;
84 -> 85 ;
86 [label="gini = 0.0\nsamples = 2\nvalue = [0, 0, 0, 2, 0, 0, 0, 0, 0, 0]"] ;
85 -> 86 ;
87 [label="gini = 0.0\nsamples = 1\nvalue = [0, 0, 0, 0, 0, 0, 0, 1, 0, 0]"] ;
85 -> 87 ;
88 [label="X[62] <= 2.5\ngini = 0.025\nsamples = 78\nvalue = [0, 0, 1, 0, 0, 0, 0, 77, 0, 0]"] ;
84 -> 88 ;
89 [label="gini = 0.0\nsamples = 77\nvalue = [0, 0, 0, 0, 0, 0, 0, 77, 0, 0]"] ;
88 -> 89 ;
90 [label="gini = 0.0\nsamples = 1\nvalue = [0, 0, 1, 0, 0, 0, 0, 0, 0, 0]"] ;
88 -> 90 ;
91 [label="X[17] <= 1.0\ngini = 0.663\nsamples = 14\nvalue = [0, 0, 0, 0, 4, 0, 0, 5, 0, 5]"] ;
83 -> 91 ;
92 [label="gini = 0.0\nsamples = 5\nvalue = [0, 0, 0, 0, 0, 0, 0, 5, 0, 0]"] ;
91 -> 92 ;
93 [label="X[4] <= 10.5\ngini = 0.494\nsamples = 9\nvalue = [0, 0, 0, 0, 4, 0, 0, 0, 0, 5]"] ;
91 -> 93 ;
94 [label="gini = 0.0\nsamples = 4\nvalue = [0, 0, 0, 0, 4, 0, 0, 0, 0, 0]"] ;
93 -> 94 ;
95 [label="gini = 0.0\nsamples = 5\nvalue = [0, 0, 0, 0, 0, 0, 0, 0, 0, 5]"] ;
93 -> 95 ;
96 [label="X[33] <= 3.5\ngini = 0.85\nsamples = 634\nvalue = [2, 100, 85, 114, 91, 8, 4, 30, 120, 80]"] ;
82 -> 96 ;
97 [label="X[43] <= 1.5\ngini = 0.821\nsamples = 516\nvalue = [1, 83, 84, 113, 6, 7, 1, 23, 118, 80]"] ;
96 -> 97 ;
98 [label="X[29] <= 12.5\ngini = 0.664\nsamples = 217\nvalue = [0, 14, 5, 99, 0, 6, 0, 2, 17, 74]"] ;
97 -> 98 ;
99 [label="X[34] <= 7.5\ngini = 0.423\nsamples = 126\nvalue = [0, 2, 2, 94, 0, 2, 0, 2, 15, 9]"] ;
98 -> 99 ;
100 [label="X[26] <= 9.5\ngini = 0.238\nsamples = 107\nvalue = [0, 1, 2, 93, 0, 2, 0, 1, 0, 8]"] ;
99 -> 100 ;
101 [label="X[28] <= 8.0\ngini = 0.099\nsamples = 98\nvalue = [0, 1, 2, 93, 0, 1, 0, 0, 0, 1]"] ;
100 -> 101 ;
102 [label="gini = 0.0\nsamples = 2\nvalue = [0, 0, 2, 0, 0, 0, 0, 0, 0, 0]"] ;
101 -> 102 ;
103 [label="X[19] <= 14.5\ngini = 0.061\nsamples = 96\nvalue = [0, 1, 0, 93, 0, 1, 0, 0, 0, 1]"] ;
101 -> 103 ;
104 [label="X[13] <= 3.5\ngini = 0.021\nsamples = 94\nvalue = [0, 0, 0, 93, 0, 0, 0, 0, 0, 1]"] ;
103 -> 104 ;
105 [label="gini = 0.0\nsamples = 1\nvalue = [0, 0, 0, 0, 0, 0, 0, 0, 0, 1]"] ;
104 -> 105 ;
106 [label="gini = 0.0\nsamples = 93\nvalue = [0, 0, 0, 93, 0, 0, 0, 0, 0, 0]"] ;
104 -> 106 ;
107 [label="X[59] <= 12.5\ngini = 0.5\nsamples = 2\nvalue = [0, 1, 0, 0, 0, 1, 0, 0, 0, 0]"] ;
103 -> 107 ;
108 [label="gini = 0.0\nsamples = 1\nvalue = [0, 1, 0, 0, 0, 0, 0, 0, 0, 0]"] ;
107 -> 108 ;
109 [label="gini = 0.0\nsamples = 1\nvalue = [0, 0, 0, 0, 0, 1, 0, 0, 0, 0]"] ;
107 -> 109 ;
110 [label="X[35] <= 2.0\ngini = 0.37\nsamples = 9\nvalue = [0, 0, 0, 0, 0, 1, 0, 1, 0, 7]"] ;
100 -> 110 ;
111 [label="X[58] <= 5.0\ngini = 0.5\nsamples = 2\nvalue = [0, 0, 0, 0, 0, 1, 0, 1, 0, 0]"] ;
110 -> 111 ;
112 [label="gini = 0.0\nsamples = 1\nvalue = [0, 0, 0, 0, 0, 0, 0, 1, 0, 0]"] ;
111 -> 112 ;
113 [label="gini = 0.0\nsamples = 1\nvalue = [0, 0, 0, 0, 0, 1, 0, 0, 0, 0]"] ;
111 -> 113 ;
114 [label="gini = 0.0\nsamples = 7\nvalue = [0, 0, 0, 0, 0, 0, 0, 0, 0, 7]"] ;
110 -> 114 ;
115 [label="X[50] <= 4.0\ngini = 0.366\nsamples = 19\nvalue = [0, 1, 0, 1, 0, 0, 0, 1, 15, 1]"] ;
99 -> 115 ;
116 [label="X[18] <= 4.0\ngini = 0.75\nsamples = 4\nvalue = [0, 1, 0, 1, 0, 0, 0, 1, 0, 1]"] ;
115 -> 116 ;
117 [label="gini = 0.0\nsamples = 1\nvalue = [0, 1, 0, 0, 0, 0, 0, 0, 0, 0]"] ;
116 -> 117 ;
118 [label="X[52] <= 6.5\ngini = 0.667\nsamples = 3\nvalue = [0, 0, 0, 1, 0, 0, 0, 1, 0, 1]"] ;
116 -> 118 ;
119 [label="gini = 0.0\nsamples = 1\nvalue = [0, 0, 0, 0, 0, 0, 0, 0, 0, 1]"] ;
118 -> 119 ;
120 [label="X[38] <= 0.5\ngini = 0.5\nsamples = 2\nvalue = [0, 0, 0, 1, 0, 0, 0, 1, 0, 0]"] ;
118 -> 120 ;
121 [label="gini = 0.0\nsamples = 1\nvalue = [0, 0, 0, 1, 0, 0, 0, 0, 0, 0]"] ;
120 -> 121 ;
122 [label="gini = 0.0\nsamples = 1\nvalue = [0, 0, 0, 0, 0, 0, 0, 1, 0, 0]"] ;
120 -> 122 ;
123 [label="gini = 0.0\nsamples = 15\nvalue = [0, 0, 0, 0, 0, 0, 0, 0, 15, 0]"] ;
115 -> 123 ;
124 [label="X[35] <= 1.5\ngini = 0.466\nsamples = 91\nvalue = [0, 12, 3, 5, 0, 4, 0, 0, 2, 65]"] ;
98 -> 124 ;
125 [label="X[3] <= 1.5\ngini = 0.72\nsamples = 34\nvalue = [0, 11, 3, 4, 0, 3, 0, 0, 0, 13]"] ;
124 -> 125 ;
126 [label="gini = 0.0\nsamples = 10\nvalue = [0, 10, 0, 0, 0, 0, 0, 0, 0, 0]"] ;
125 -> 126 ;
127 [label="X[27] <= 7.5\ngini = 0.646\nsamples = 24\nvalue = [0, 1, 3, 4, 0, 3, 0, 0, 0, 13]"] ;
125 -> 127 ;
128 [label="X[46] <= 3.5\ngini = 0.667\nsamples = 9\nvalue = [0, 1, 3, 4, 0, 1, 0, 0, 0, 0]"] ;
127 -> 128 ;
129 [label="X[55] <= 0.5\ngini = 0.56\nsamples = 5\nvalue = [0, 1, 3, 0, 0, 1, 0, 0, 0, 0]"] ;
128 -> 129 ;
130 [label="X[36] <= 9.0\ngini = 0.5\nsamples = 2\nvalue = [0, 1, 0, 0, 0, 1, 0, 0, 0, 0]"] ;
129 -> 130 ;
131 [label="gini = 0.0\nsamples = 1\nvalue = [0, 0, 0, 0, 0, 1, 0, 0, 0, 0]"] ;
130 -> 131 ;
132 [label="gini = 0.0\nsamples = 1\nvalue = [0, 1, 0, 0, 0, 0, 0, 0, 0, 0]"] ;
130 -> 132 ;
133 [label="gini = 0.0\nsamples = 3\nvalue = [0, 0, 3, 0, 0, 0, 0, 0, 0, 0]"] ;
129 -> 133 ;
134 [label="gini = 0.0\nsamples = 4\nvalue = [0, 0, 0, 4, 0, 0, 0, 0, 0, 0]"] ;
128 -> 134 ;
135 [label="X[2] <= 11.0\ngini = 0.231\nsamples = 15\nvalue = [0, 0, 0, 0, 0, 2, 0, 0, 0, 13]"] ;
127 -> 135 ;
136 [label="gini = 0.0\nsamples = 13\nvalue = [0, 0, 0, 0, 0, 0, 0, 0, 0, 13]"] ;
135 -> 136 ;
137 [label="gini = 0.0\nsamples = 2\nvalue = [0, 0, 0, 0, 0, 2, 0, 0, 0, 0]"] ;
135 -> 137 ;
138 [label="X[21] <= 10.5\ngini = 0.166\nsamples = 57\nvalue = [0, 1, 0, 1, 0, 1, 0, 0, 2, 52]"] ;
124 -> 138 ;
139 [label="X[19] <= 6.5\ngini = 0.72\nsamples = 5\nvalue = [0, 0, 0, 1, 0, 1, 0, 0, 2, 1]"] ;
138 -> 139 ;
140 [label="gini = 0.0\nsamples = 2\nvalue = [0, 0, 0, 0, 0, 0, 0, 0, 2, 0]"] ;
139 -> 140 ;
141 [label="X[11] <= 12.0\ngini = 0.667\nsamples = 3\nvalue = [0, 0, 0, 1, 0, 1, 0, 0, 0, 1]"] ;
139 -> 141 ;
142 [label="gini = 0.0\nsamples = 1\nvalue = [0, 0, 0, 1, 0, 0, 0, 0, 0, 0]"] ;
141 -> 142 ;
143 [label="X[15] <= 2.0\ngini = 0.5\nsamples = 2\nvalue = [0, 0, 0, 0, 0, 1, 0, 0, 0, 1]"] ;
141 -> 143 ;
144 [label="gini = 0.0\nsamples = 1\nvalue = [0, 0, 0, 0, 0, 1, 0, 0, 0, 0]"] ;
143 -> 144 ;
145 [label="gini = 0.0\nsamples = 1\nvalue = [0, 0, 0, 0, 0, 0, 0, 0, 0, 1]"] ;
143 -> 145 ;
146 [label="X[11] <= 1.0\ngini = 0.038\nsamples = 52\nvalue = [0, 1, 0, 0, 0, 0, 0, 0, 0, 51]"] ;
138 -> 146 ;
147 [label="gini = 0.0\nsamples = 1\nvalue = [0, 1, 0, 0, 0, 0, 0, 0, 0, 0]"] ;
146 -> 147 ;
148 [label="gini = 0.0\nsamples = 51\nvalue = [0, 0, 0, 0, 0, 0, 0, 0, 0, 51]"] ;
146 -> 148 ;
149 [label="X[27] <= 8.5\ngini = 0.755\nsamples = 299\nvalue = [1, 69, 79, 14, 6, 1, 1, 21, 101, 6]"] ;
97 -> 149 ;
150 [label="X[61] <= 1.5\ngini = 0.538\nsamples = 101\nvalue = [1, 3, 66, 2, 2, 0, 0, 16, 9, 2]"] ;
149 -> 150 ;
151 [label="X[13] <= 9.5\ngini = 0.459\nsamples = 22\nvalue = [1, 1, 1, 1, 1, 0, 0, 16, 1, 0]"] ;
150 -> 151 ;
152 [label="X[29] <= 4.0\ngini = 0.75\nsamples = 4\nvalue = [1, 1, 1, 0, 1, 0, 0, 0, 0, 0]"] ;
151 -> 152 ;
153 [label="gini = 0.0\nsamples = 1\nvalue = [0, 1, 0, 0, 0, 0, 0, 0, 0, 0]"] ;
152 -> 153 ;
154 [label="X[21] <= 6.0\ngini = 0.667\nsamples = 3\nvalue = [1, 0, 1, 0, 1, 0, 0, 0, 0, 0]"] ;
152 -> 154 ;
155 [label="gini = 0.0\nsamples = 1\nvalue = [0, 0, 0, 0, 1, 0, 0, 0, 0, 0]"] ;
154 -> 155 ;
156 [label="X[9] <= 5.5\ngini = 0.5\nsamples = 2\nvalue = [1, 0, 1, 0, 0, 0, 0, 0, 0, 0]"] ;
154 -> 156 ;
157 [label="gini = 0.0\nsamples = 1\nvalue = [1, 0, 0, 0, 0, 0, 0, 0, 0, 0]"] ;
156 -> 157 ;
158 [label="gini = 0.0\nsamples = 1\nvalue = [0, 0, 1, 0, 0, 0, 0, 0, 0, 0]"] ;
156 -> 158 ;
159 [label="X[9] <= 5.0\ngini = 0.204\nsamples = 18\nvalue = [0, 0, 0, 1, 0, 0, 0, 16, 1, 0]"] ;
151 -> 159 ;
160 [label="X[46] <= 7.0\ngini = 0.111\nsamples = 17\nvalue = [0, 0, 0, 1, 0, 0, 0, 16, 0, 0]"] ;
159 -> 160 ;
161 [label="gini = 0.0\nsamples = 16\nvalue = [0, 0, 0, 0, 0, 0, 0, 16, 0, 0]"] ;
160 -> 161 ;
162 [label="gini = 0.0\nsamples = 1\nvalue = [0, 0, 0, 1, 0, 0, 0, 0, 0, 0]"] ;
160 -> 162 ;
163 [label="gini = 0.0\nsamples = 1\nvalue = [0, 0, 0, 0, 0, 0, 0, 0, 1, 0]"] ;
159 -> 163 ;
164 [label="X[26] <= 7.5\ngini = 0.311\nsamples = 79\nvalue = [0, 2, 65, 1, 1, 0, 0, 0, 8, 2]"] ;
150 -> 164 ;
165 [label="X[38] <= 0.5\ngini = 0.088\nsamples = 66\nvalue = [0, 1, 63, 1, 0, 0, 0, 0, 0, 1]"] ;
164 -> 165 ;
166 [label="X[50] <= 0.5\ngini = 0.031\nsamples = 64\nvalue = [0, 1, 63, 0, 0, 0, 0, 0, 0, 0]"] ;
165 -> 166 ;
167 [label="gini = 0.0\nsamples = 1\nvalue = [0, 1, 0, 0, 0, 0, 0, 0, 0, 0]"] ;
166 -> 167 ;
168 [label="gini = 0.0\nsamples = 63\nvalue = [0, 0, 63, 0, 0, 0, 0, 0, 0, 0]"] ;
166 -> 168 ;
169 [label="X[45] <= 12.0\ngini = 0.5\nsamples = 2\nvalue = [0, 0, 0, 1, 0, 0, 0, 0, 0, 1]"] ;
165 -> 169 ;
170 [label="gini = 0.0\nsamples = 1\nvalue = [0, 0, 0, 0, 0, 0, 0, 0, 0, 1]"] ;
169 -> 170 ;
171 [label="gini = 0.0\nsamples = 1\nvalue = [0, 0, 0, 1, 0, 0, 0, 0, 0, 0]"] ;
169 -> 171 ;
172 [label="X[21] <= 7.5\ngini = 0.58\nsamples = 13\nvalue = [0, 1, 2, 0, 1, 0, 0, 0, 8, 1]"] ;
164 -> 172 ;
173 [label="X[62] <= 4.5\ngini = 0.625\nsamples = 4\nvalue = [0, 1, 2, 0, 1, 0, 0, 0, 0, 0]"] ;
172 -> 173 ;
174 [label="X[11] <= 14.5\ngini = 0.5\nsamples = 2\nvalue = [0, 1, 0, 0, 1, 0, 0, 0, 0, 0]"] ;
173 -> 174 ;
175 [label="gini = 0.0\nsamples = 1\nvalue = [0, 1, 0, 0, 0, 0, 0, 0, 0, 0]"] ;
174 -> 175 ;
176 [label="gini = 0.0\nsamples = 1\nvalue = [0, 0, 0, 0, 1, 0, 0, 0, 0, 0]"] ;
174 -> 176 ;
177 [label="gini = 0.0\nsamples = 2\nvalue = [0, 0, 2, 0, 0, 0, 0, 0, 0, 0]"] ;
173 -> 177 ;
178 [label="X[2] <= 8.0\ngini = 0.198\nsamples = 9\nvalue = [0, 0, 0, 0, 0, 0, 0, 0, 8, 1]"] ;
172 -> 178 ;
179 [label="gini = 0.0\nsamples = 8\nvalue = [0, 0, 0, 0, 0, 0, 0, 0, 8, 0]"] ;
178 -> 179 ;
180 [label="gini = 0.0\nsamples = 1\nvalue = [0, 0, 0, 0, 0, 0, 0, 0, 0, 1]"] ;
178 -> 180 ;
181 [label="X[20] <= 15.5\ngini = 0.664\nsamples = 198\nvalue = [0, 66, 13, 12, 4, 1, 1, 5, 92, 4]"] ;
149 -> 181 ;
182 [label="X[18] <= 2.5\ngini = 0.414\nsamples = 112\nvalue = [0, 5, 2, 7, 2, 1, 1, 5, 85, 4]"] ;
181 -> 182 ;
183 [label="X[58] <= 3.0\ngini = 0.735\nsamples = 14\nvalue = [0, 2, 1, 6, 0, 0, 1, 3, 1, 0]"] ;
182 -> 183 ;
184 [label="X[34] <= 10.5\ngini = 0.694\nsamples = 7\nvalue = [0, 2, 0, 0, 0, 0, 1, 3, 1, 0]"] ;
183 -> 184 ;
185 [label="X[29] <= 7.0\ngini = 0.625\nsamples = 4\nvalue = [0, 2, 0, 0, 0, 0, 1, 0, 1, 0]"] ;
184 -> 185 ;
186 [label="gini = 0.0\nsamples = 2\nvalue = [0, 2, 0, 0, 0, 0, 0, 0, 0, 0]"] ;
185 -> 186 ;
187 [label="X[42] <= 12.0\ngini = 0.5\nsamples = 2\nvalue = [0, 0, 0, 0, 0, 0, 1, 0, 1, 0]"] ;
185 -> 187 ;
188 [label="gini = 0.0\nsamples = 1\nvalue = [0, 0, 0, 0, 0, 0, 1, 0, 0, 0]"] ;
187 -> 188 ;
189 [label="gini = 0.0\nsamples = 1\nvalue = [0, 0, 0, 0, 0, 0, 0, 0, 1, 0]"] ;
187 -> 189 ;
190 [label="gini = 0.0\nsamples = 3\nvalue = [0, 0, 0, 0, 0, 0, 0, 3, 0, 0]"] ;
184 -> 190 ;
191 [label="X[45] <= 0.5\ngini = 0.245\nsamples = 7\nvalue = [0, 0, 1, 6, 0, 0, 0, 0, 0, 0]"] ;
183 -> 191 ;
192 [label="gini = 0.0\nsamples = 1\nvalue = [0, 0, 1, 0, 0, 0, 0, 0, 0, 0]"] ;
191 -> 192 ;
193 [label="gini = 0.0\nsamples = 6\nvalue = [0, 0, 0, 6, 0, 0, 0, 0, 0, 0]"] ;
191 -> 193 ;
194 [label="X[60] <= 4.5\ngini = 0.262\nsamples = 98\nvalue = [0, 3, 1, 1, 2, 1, 0, 2, 84, 4]"] ;
182 -> 194 ;
195 [label="X[30] <= 2.5\ngini = 0.625\nsamples = 4\nvalue = [0, 0, 0, 0, 2, 1, 0, 0, 0, 1]"] ;
194 -> 195 ;
196 [label="X[34] <= 6.0\ngini = 0.5\nsamples = 2\nvalue = [0, 0, 0, 0, 0, 1, 0, 0, 0, 1]"] ;
195 -> 196 ;
197 [label="gini = 0.0\nsamples = 1\nvalue = [0, 0, 0, 0, 0, 0, 0, 0, 0, 1]"] ;
196 -> 197 ;
198 [label="gini = 0.0\nsamples = 1\nvalue = [0, 0, 0, 0, 0, 1, 0, 0, 0, 0]"] ;
196 -> 198 ;
199 [label="gini = 0.0\nsamples = 2\nvalue = [0, 0, 0, 0, 2, 0, 0, 0, 0, 0]"] ;
195 -> 199 ;
200 [label="X[30] <= 7.5\ngini = 0.199\nsamples = 94\nvalue = [0, 3, 1, 1, 0, 0, 0, 2, 84, 3]"] ;
194 -> 200 ;
201 [label="X[21] <= 4.0\ngini = 0.146\nsamples = 91\nvalue = [0, 3, 1, 1, 0, 0, 0, 0, 84, 2]"] ;
200 -> 201 ;
202 [label="X[26] <= 7.5\ngini = 0.48\nsamples = 5\nvalue = [0, 3, 0, 0, 0, 0, 0, 0, 2, 0]"] ;
201 -> 202 ;
203 [label="gini = 0.0\nsamples = 2\nvalue = [0, 0, 0, 0, 0, 0, 0, 0, 2, 0]"] ;
202 -> 203 ;
204 [label="gini = 0.0\nsamples = 3\nvalue = [0, 3, 0, 0, 0, 0, 0, 0, 0, 0]"] ;
202 -> 204 ;
205 [label="X[46] <= 9.5\ngini = 0.09\nsamples = 86\nvalue = [0, 0, 1, 1, 0, 0, 0, 0, 82, 2]"] ;
201 -> 205 ;
206 [label="X[29] <= 15.5\ngini = 0.069\nsamples = 85\nvalue = [0, 0, 1, 0, 0, 0, 0, 0, 82, 2]"] ;
205 -> 206 ;
207 [label="X[36] <= 5.0\ngini = 0.025\nsamples = 80\nvalue = [0, 0, 1, 0, 0, 0, 0, 0, 79, 0]"] ;
206 -> 207 ;
208 [label="X[9] <= 8.0\ngini = 0.5\nsamples = 2\nvalue = [0, 0, 1, 0, 0, 0, 0, 0, 1, 0]"] ;
207 -> 208 ;
209 [label="gini = 0.0\nsamples = 1\nvalue = [0, 0, 1, 0, 0, 0, 0, 0, 0, 0]"] ;
208 -> 209 ;
210 [label="gini = 0.0\nsamples = 1\nvalue = [0, 0, 0, 0, 0, 0, 0, 0, 1, 0]"] ;
208 -> 210 ;
211 [label="gini = 0.0\nsamples = 78\nvalue = [0, 0, 0, 0, 0, 0, 0, 0, 78, 0]"] ;
207 -> 211 ;
212 [label="X[61] <= 6.0\ngini = 0.48\nsamples = 5\nvalue = [0, 0, 0, 0, 0, 0, 0, 0, 3, 2]"] ;
206 -> 212 ;
213 [label="gini = 0.0\nsamples = 2\nvalue = [0, 0, 0, 0, 0, 0, 0, 0, 0, 2]"] ;
212 -> 213 ;
214 [label="gini = 0.0\nsamples = 3\nvalue = [0, 0, 0, 0, 0, 0, 0, 0, 3, 0]"] ;
212 -> 214 ;
215 [label="gini = 0.0\nsamples = 1\nvalue = [0, 0, 0, 1, 0, 0, 0, 0, 0, 0]"] ;
205 -> 215 ;
216 [label="X[60] <= 12.0\ngini = 0.444\nsamples = 3\nvalue = [0, 0, 0, 0, 0, 0, 0, 2, 0, 1]"] ;
200 -> 216 ;
217 [label="gini = 0.0\nsamples = 2\nvalue = [0, 0, 0, 0, 0, 0, 0, 2, 0, 0]"] ;
216 -> 217 ;
218 [label="gini = 0.0\nsamples = 1\nvalue = [0, 0, 0, 0, 0, 0, 0, 0, 0, 1]"] ;
216 -> 218 ;
219 [label="X[44] <= 6.5\ngini = 0.47\nsamples = 86\nvalue = [0, 61, 11, 5, 2, 0, 0, 0, 7, 0]"] ;
181 -> 219 ;
220 [label="X[51] <= 7.0\ngini = 0.272\nsamples = 13\nvalue = [0, 0, 11, 1, 0, 0, 0, 0, 1, 0]"] ;
219 -> 220 ;
221 [label="X[62] <= 1.0\ngini = 0.5\nsamples = 2\nvalue = [0, 0, 0, 1, 0, 0, 0, 0, 1, 0]"] ;
220 -> 221 ;
222 [label="gini = 0.0\nsamples = 1\nvalue = [0, 0, 0, 0, 0, 0, 0, 0, 1, 0]"] ;
221 -> 222 ;
223 [label="gini = 0.0\nsamples = 1\nvalue = [0, 0, 0, 1, 0, 0, 0, 0, 0, 0]"] ;
221 -> 223 ;
224 [label="gini = 0.0\nsamples = 11\nvalue = [0, 0, 11, 0, 0, 0, 0, 0, 0, 0]"] ;
220 -> 224 ;
225 [label="X[2] <= 7.0\ngini = 0.291\nsamples = 73\nvalue = [0, 61, 0, 4, 2, 0, 0, 0, 6, 0]"] ;
219 -> 225 ;
226 [label="X[52] <= 8.5\ngini = 0.171\nsamples = 65\nvalue = [0, 59, 0, 0, 2, 0, 0, 0, 4, 0]"] ;
225 -> 226 ;
227 [label="X[29] <= 4.0\ngini = 0.375\nsamples = 4\nvalue = [0, 1, 0, 0, 0, 0, 0, 0, 3, 0]"] ;
226 -> 227 ;
228 [label="gini = 0.0\nsamples = 3\nvalue = [0, 0, 0, 0, 0, 0, 0, 0, 3, 0]"] ;
227 -> 228 ;
229 [label="gini = 0.0\nsamples = 1\nvalue = [0, 1, 0, 0, 0, 0, 0, 0, 0, 0]"] ;
227 -> 229 ;
230 [label="X[41] <= 7.5\ngini = 0.095\nsamples = 61\nvalue = [0, 58, 0, 0, 2, 0, 0, 0, 1, 0]"] ;
226 -> 230 ;
231 [label="X[12] <= 8.0\ngini = 0.033\nsamples = 59\nvalue = [0, 58, 0, 0, 0, 0, 0, 0, 1, 0]"] ;
230 -> 231 ;
232 [label="X[60] <= 11.5\ngini = 0.5\nsamples = 2\nvalue = [0, 1, 0, 0, 0, 0, 0, 0, 1, 0]"] ;
231 -> 232 ;
233 [label="gini = 0.0\nsamples = 1\nvalue = [0, 1, 0, 0, 0, 0, 0, 0, 0, 0]"] ;
232 -> 233 ;
234 [label="gini = 0.0\nsamples = 1\nvalue = [0, 0, 0, 0, 0, 0, 0, 0, 1, 0]"] ;
232 -> 234 ;
235 [label="gini = 0.0\nsamples = 57\nvalue = [0, 57, 0, 0, 0, 0, 0, 0, 0, 0]"] ;
231 -> 235 ;
236 [label="gini = 0.0\nsamples = 2\nvalue = [0, 0, 0, 0, 2, 0, 0, 0, 0, 0]"] ;
230 -> 236 ;
237 [label="X[43] <= 10.0\ngini = 0.625\nsamples = 8\nvalue = [0, 2, 0, 4, 0, 0, 0, 0, 2, 0]"] ;
225 -> 237 ;
238 [label="gini = 0.0\nsamples = 4\nvalue = [0, 0, 0, 4, 0, 0, 0, 0, 0, 0]"] ;
237 -> 238 ;
239 [label="X[10] <= 10.5\ngini = 0.5\nsamples = 4\nvalue = [0, 2, 0, 0, 0, 0, 0, 0, 2, 0]"] ;
237 -> 239 ;
240 [label="gini = 0.0\nsamples = 2\nvalue = [0, 2, 0, 0, 0, 0, 0, 0, 0, 0]"] ;
239 -> 240 ;
241 [label="gini = 0.0\nsamples = 2\nvalue = [0, 0, 0, 0, 0, 0, 0, 0, 2, 0]"] ;
239 -> 241 ;
242 [label="X[13] <= 9.5\ngini = 0.456\nsamples = 118\nvalue = [1, 17, 1, 1, 85, 1, 3, 7, 2, 0]"] ;
96 -> 242 ;
243 [label="X[37] <= 3.5\ngini = 0.09\nsamples = 86\nvalue = [0, 3, 0, 0, 82, 0, 1, 0, 0, 0]"] ;
242 -> 243 ;
244 [label="gini = 0.0\nsamples = 3\nvalue = [0, 3, 0, 0, 0, 0, 0, 0, 0, 0]"] ;
243 -> 244 ;
245 [label="X[4] <= 0.5\ngini = 0.024\nsamples = 83\nvalue = [0, 0, 0, 0, 82, 0, 1, 0, 0, 0]"] ;
243 -> 245 ;
246 [label="gini = 0.0\nsamples = 1\nvalue = [0, 0, 0, 0, 0, 0, 1, 0, 0, 0]"] ;
245 -> 246 ;
247 [label="gini = 0.0\nsamples = 82\nvalue = [0, 0, 0, 0, 82, 0, 0, 0, 0, 0]"] ;
245 -> 247 ;
248 [label="X[20] <= 13.5\ngini = 0.74\nsamples = 32\nvalue = [1, 14, 1, 1, 3, 1, 2, 7, 2, 0]"] ;
242 -> 248 ;
249 [label="X[19] <= 3.5\ngini = 0.75\nsamples = 16\nvalue = [1, 0, 1, 1, 2, 0, 2, 7, 2, 0]"] ;
248 -> 249 ;
250 [label="X[12] <= 6.5\ngini = 0.219\nsamples = 8\nvalue = [0, 0, 0, 1, 0, 0, 0, 7, 0, 0]"] ;
249 -> 250 ;
251 [label="gini = 0.0\nsamples = 1\nvalue = [0, 0, 0, 1, 0, 0, 0, 0, 0, 0]"] ;
250 -> 251 ;
252 [label="gini = 0.0\nsamples = 7\nvalue = [0, 0, 0, 0, 0, 0, 0, 7, 0, 0]"] ;
250 -> 252 ;
253 [label="X[27] <= 10.0\ngini = 0.781\nsamples = 8\nvalue = [1, 0, 1, 0, 2, 0, 2, 0, 2, 0]"] ;
249 -> 253 ;
254 [label="X[60] <= 12.5\ngini = 0.722\nsamples = 6\nvalue = [1, 0, 1, 0, 2, 0, 2, 0, 0, 0]"] ;
253 -> 254 ;
255 [label="gini = 0.0\nsamples = 2\nvalue = [0, 0, 0, 0, 2, 0, 0, 0, 0, 0]"] ;
254 -> 255 ;
256 [label="X[21] <= 10.5\ngini = 0.625\nsamples = 4\nvalue = [1, 0, 1, 0, 0, 0, 2, 0, 0, 0]"] ;
254 -> 256 ;
257 [label="gini = 0.0\nsamples = 2\nvalue = [0, 0, 0, 0, 0, 0, 2, 0, 0, 0]"] ;
256 -> 257 ;
258 [label="X[35] <= 8.0\ngini = 0.5\nsamples = 2\nvalue = [1, 0, 1, 0, 0, 0, 0, 0, 0, 0]"] ;
256 -> 258 ;
259 [label="gini = 0.0\nsamples = 1\nvalue = [1, 0, 0, 0, 0, 0, 0, 0, 0, 0]"] ;
258 -> 259 ;
260 [label="gini = 0.0\nsamples = 1\nvalue = [0, 0, 1, 0, 0, 0, 0, 0, 0, 0]"] ;
258 -> 260 ;
261 [label="gini = 0.0\nsamples = 2\nvalue = [0, 0, 0, 0, 0, 0, 0, 0, 2, 0]"] ;
253 -> 261 ;
262 [label="X[7] <= 1.0\ngini = 0.227\nsamples = 16\nvalue = [0, 14, 0, 0, 1, 1, 0, 0, 0, 0]"] ;
248 -> 262 ;
263 [label="X[41] <= 4.5\ngini = 0.124\nsamples = 15\nvalue = [0, 14, 0, 0, 1, 0, 0, 0, 0, 0]"] ;
262 -> 263 ;
264 [label="gini = 0.0\nsamples = 14\nvalue = [0, 14, 0, 0, 0, 0, 0, 0, 0, 0]"] ;
263 -> 264 ;
265 [label="gini = 0.0\nsamples = 1\nvalue = [0, 0, 0, 0, 1, 0, 0, 0, 0, 0]"] ;
263 -> 265 ;
266 [label="gini = 0.0\nsamples = 1\nvalue = [0, 0, 0, 0, 0, 1, 0, 0, 0, 0]"] ;
262 -> 266 ;
}
